svm_type c_svc
kernel_type linear
nr_class 2
total_sv 105
rho 1
label 1 -1
probA -135352
probB -135351
nr_sv 49 56
SV
1 0:0.90085274 1:0.3306261 2:0.69711161 3:0.901398 4:0.39765701 5:0.72177714 6:0.81510049 7:0.43114036 8:0.48856798 9:0.75867152 10:0.60440552 11:0.26666668 12:0.75867152 13:0.60440552 14:0.26666668 15:0.75867152 16:0.60440552 17:0.26666668 18:0.75867152 19:0.60440552 20:0.26666668 21:0.75867152 22:0.60440552 23:0.26666668 
1 0:0.7725209 1:0.26750883 2:0.40983605 3:0.78916198 4:0.35888162 5:0.47997087 6:0.79687136 7:0.42806655 8:0.48104694 9:0.78758752 10:0.5629555 11:0.33908045 12:0.78758752 13:0.5629555 14:0.33908045 15:0.78758752 16:0.5629555 17:0.33908045 18:0.78758752 19:0.5629555 20:0.33908045 21:0.78758752 22:0.5629555 23:0.33908045 
1 0:0.8474977 1:0.23079185 2:0.54761904 3:0.84304023 4:0.30593836 5:0.58703572 6:0.77874166 7:0.34339616 8:0.4395307 9:0.70416415 10:0.51566106 11:0.20498085 12:0.70416415 13:0.51566106 14:0.20498085 15:0.70416415 16:0.51566106 17:0.20498085 18:0.70416415 19:0.51566106 20:0.20498085 21:0.70416415 22:0.51566106 23:0.20498085 
1 0:0.82917434 1:0.090932719 2:0.53122562 3:0.73441488 4:0.22027671 5:0.39147851 6:0.57613552 7:0.45365059 8:0.18712395 9:0.69778192 10:0.62155682 11:0.19157088 12:0.69778192 13:0.62155682 14:0.19157088 15:0.69778192 16:0.62155682 17:0.19157088 18:0.69778192 19:0.62155682 20:0.19157088 21:0.69778192 22:0.62155682 23:0.19157088 
1 0:0.56332725 1:0.18446387 2:0.16276346 3:0.38487273 4:0.61089975 5:0.10487983 6:0.37157091 7:0.79152149 8:0.10619735 9:0.79002744 10:0.76979852 11:0.33984673 12:0.79002744 13:0.76979852 14:0.33984673 15:0.79002744 16:0.76979852 17:0.33984673 18:0.79002744 19:0.76979852 20:0.33984673 21:0.79002744 22:0.76979852 23:0.33984673 
1 0:0.7723515 1:0.28149882 2:0.40866509 3:0.66012406 4:0.49066752 5:0.32010198 6:0.67855847 7:0.62507296 8:0.32912153 9:0.80312485 10:0.7331506 11:0.32030651 12:0.80312485 13:0.7331506 14:0.32030651 15:0.80312485 16:0.7331506 17:0.32030651 18:0.80312485 19:0.7331506 20:0.32030651 21:0.80312485 22:0.7331506 23:0.32030651 
1 0:0.65611398 1:0.42114204 2:0.2373146 3:0.74478537 4:0.45522493 5:0.42534596 6:0.60751373 7:0.66685957 8:0.25481349 9:0.69484055 10:0.74400979 11:0.20114942 12:0.69484055 13:0.74400979 14:0.20114942 15:0.69484055 16:0.74400979 17:0.20114942 18:0.69484055 19:0.74400979 20:0.20114942 21:0.69484055 22:0.74400979 23:0.20114942 
1 0:0.93486696 1:0.29985783 2:0.81693989 3:0.98399287 4:0.33132139 5:0.9883467 6:0.86783689 7:0.33531079 8:0.58182913 9:0.77093953 10:0.38853285 11:0.2835249 12:0.77093953 13:0.38853285 14:0.2835249 15:0.77093953 16:0.38853285 17:0.2835249 18:0.77093953 19:0.38853285 20:0.2835249 21:0.77093953 22:0.38853285 23:0.2835249 
1 0:0.77442634 1:0.3269715 2:0.21155347 3:0.68948889 4:0.37606347 5:0.25127459 6:0.65893948 7:0.47055858 8:0.26353791 9:0.86217791 10:0.50098628 11:0.51800764 12:0.86217791 13:0.50098628 14:0.51800764 15:0.86217791 16:0.50098628 17:0.51800764 18:0.86217791 19:0.50098628 20:0.51800764 21:0.86217791 22:0.50098628 23:0.51800764 
1 0:0.89100921 1:0.069007143 2:0.68540204 3:0.8529135 4:0.11200449 5:0.57101238 6:0.54915643 7:0.30490056 8:0.1868231 9:0.69773346 10:0.41629186 11:0.15708812 12:0.69773346 13:0.41629186 14:0.15708812 15:0.69773346 16:0.41629186 17:0.15708812 18:0.69773346 19:0.41629186 20:0.15708812 21:0.69773346 22:0.41629186 23:0.15708812 
1 0:0.53561115 1:0.5940544 2:0.17291179 3:0.72231007 4:0.60188037 5:0.39766935 6:0.69382423 7:0.78594506 8:0.34145609 9:0.80507666 10:0.76407057 11:0.34712642 12:0.80507666 13:0.76407057 14:0.34712642 15:0.80507666 16:0.76407057 17:0.34712642 18:0.80507666 19:0.76407057 20:0.34712642 21:0.80507666 22:0.76407057 23:0.34712642 
1 0:0.83964354 1:0.43391654 2:0.54918033 3:0.82271832 4:0.57132459 5:0.52658415 6:0.61120856 7:0.75541562 8:0.23315282 9:0.73052037 10:0.75967306 11:0.23908046 12:0.73052037 13:0.75967306 14:0.23908046 15:0.73052037 16:0.75967306 17:0.23908046 18:0.73052037 19:0.75967306 20:0.23908046 21:0.73052037 22:0.75967306 23:0.23908046 
1 0:0.76725215 1:0.44356999 2:0.39149103 3:0.83728099 4:0.50879419 5:0.52184999 6:0.68688017 7:0.81940317 8:0.3011432 9:0.82537913 10:0.84863991 11:0.41149426 12:0.82537913 13:0.84863991 14:0.41149426 15:0.82537913 16:0.84863991 17:0.41149426 18:0.82537913 19:0.84863991 20:0.41149426 21:0.82537913 22:0.84863991 23:0.41149426 
1 0:0.73392361 1:0.48102248 2:0.36846215 3:0.81594312 4:0.59061718 5:0.53860158 6:0.72086257 7:0.717219 8:0.39019254 9:0.75153267 10:0.7620576 11:0.24137931 12:0.75153267 13:0.7620576 14:0.24137931 15:0.75153267 16:0.7620576 17:0.24137931 18:0.75153267 19:0.7620576 20:0.24137931 21:0.75153267 22:0.7620576 23:0.24137931 
1 0:0.93690425 1:0.36100417 2:0.79469162 3:0.98887914 4:0.37825018 5:0.9901675 6:0.60366142 7:0.63937175 8:0.24669074 9:0.6593399 10:0.71598816 11:0.17701149 12:0.6593399 13:0.71598816 14:0.17701149 15:0.6593399 16:0.71598816 17:0.17701149 18:0.6593399 19:0.71598816 20:0.17701149 21:0.6593399 22:0.71598816 23:0.17701149 
1 0:0.73330891 1:0.30266568 2:0.38251367 3:0.92711163 4:0.3089551 5:0.79898036 6:0.40677023 7:0.47097939 8:0.1179302 9:0.54797596 10:0.5920074 11:0.068582378 12:0.54797596 13:0.5920074 14:0.068582378 15:0.54797596 16:0.5920074 17:0.068582378 18:0.54797596 19:0.5920074 20:0.068582378 21:0.54797596 22:0.5920074 23:0.068582378 
1 0:0.9000566 1:0.35893467 2:0.59797031 3:0.86621881 4:0.46164569 5:0.5677349 6:0.74608016 7:0.52924639 8:0.39470518 9:0.81116813 10:0.62177706 11:0.38659003 12:0.81116813 13:0.62177706 14:0.38659003 15:0.81116813 16:0.62177706 17:0.38659003 18:0.81116813 19:0.62177706 20:0.38659003 21:0.81116813 22:0.62177706 23:0.38659003 
1 0:0.72942096 1:0.38275555 2:0.33177206 3:0.74440217 4:0.53697616 5:0.41260016 6:0.74576199 7:0.78454655 8:0.35258725 9:0.83573306 10:0.82055277 11:0.38084292 12:0.83573306 13:0.82055277 14:0.38084292 15:0.83573306 16:0.82055277 17:0.38084292 18:0.83573306 19:0.82055277 20:0.38084292 21:0.83573306 22:0.82055277 23:0.38084292 
1 0:0.65003234 1:0.14557716 2:0.19008587 3:0.67652726 4:0.24254481 5:0.23889293 6:0.54651409 7:0.38189223 8:0.17779784 9:0.75699782 10:0.47137198 11:0.2808429 12:0.75699782 13:0.47137198 14:0.2808429 15:0.75699782 16:0.47137198 17:0.2808429 18:0.75699782 19:0.47137198 20:0.2808429 21:0.75699782 22:0.47137198 23:0.2808429 
1 0:0.73914683 1:0.3771756 2:0.3676815 3:0.70683241 4:0.5681982 5:0.35615441 6:0.62452084 7:0.8475126 8:0.23014441 9:0.79269612 10:0.84220278 11:0.2651341 12:0.79269612 13:0.84220278 14:0.2651341 15:0.79269612 16:0.84220278 17:0.2651341 18:0.79269612 19:0.84220278 20:0.2651341 21:0.79269612 22:0.84220278 23:0.2651341 
1 0:0 1:0.50423914 2:0 3:0 4:0.49212533 5:0 6:0 7:0.70135427 8:0 9:0.91443217 10:0.7987594 11:0.6697318 12:0.91443217 13:0.7987594 14:0.6697318 15:0.91443217 16:0.7987594 17:0.6697318 18:0.91443217 19:0.7987594 20:0.6697318 21:0.91443217 22:0.7987594 23:0.6697318 
1 0:0.32667619 1:0.68097693 2:0.040202968 3:0.42181653 4:0.79913402 5:0.093954846 6:0.66287386 7:0.81577742 8:0.27707583 9:0.89027256 10:0.78392953 11:0.59157085 12:0.89027256 13:0.78392953 14:0.59157085 15:0.89027256 16:0.78392953 17:0.59157085 18:0.89027256 19:0.78392953 20:0.59157085 21:0.89027256 22:0.78392953 23:0.59157085 
1 0:0.15781677 1:0.47742224 2:0.016783763 3:0.1061933 4:0.53814191 5:0.017115805 6:0.16712217 7:0.73161888 8:0.021961492 9:0.87531346 10:0.75987583 11:0.55363983 12:0.87531346 13:0.75987583 14:0.55363983 15:0.87531346 16:0.75987583 17:0.55363983 18:0.87531346 19:0.75987583 20:0.55363983 21:0.87531346 22:0.75987583 23:0.55363983 
1 0:0.48575154 1:0.89327306 2:0.10187354 3:0.60596311 4:0.90909404 5:0.23415877 6:0.78393686 7:0.87439704 8:0.4666065 9:0.88959789 10:0.79660934 11:0.53908044 12:0.88959789 13:0.79660934 14:0.53908044 15:0.88959789 16:0.79660934 17:0.53908044 18:0.88959789 19:0.79660934 20:0.53908044 21:0.88959789 22:0.79660934 23:0.53908044 
1 0:0.56547153 1:0.29757258 2:0.20062451 3:0.53876328 4:0.5855729 5:0.203933 6:0.48539862 7:0.82373035 8:0.17268351 9:0.77936631 10:0.81895941 11:0.3321839 12:0.77936631 13:0.81895941 14:0.3321839 15:0.77936631 16:0.81895941 17:0.3321839 18:0.77936631 19:0.81895941 20:0.3321839 21:0.77936631 22:0.81895941 23:0.3321839 
1 0:0.71964723 1:0.43057439 2:0.33333334 3:0.62850344 4:0.61059552 5:0.27603787 6:0.53598344 7:0.79856896 8:0.19404332 9:0.78943223 10:0.86864936 11:0.30344829 12:0.78943223 13:0.86864936 14:0.30344829 15:0.78943223 16:0.86864936 17:0.30344829 18:0.78943223 19:0.86864936 20:0.30344829 21:0.78943223 22:0.86864936 23:0.30344829 
1 0:0.78401548 1:0.52436477 2:0.44223264 3:0.8022418 4:0.64260024 5:0.51565915 6:0.63008082 7:0.86049294 8:0.26744884 9:0.7479744 10:0.87745935 11:0.26896551 12:0.7479744 13:0.87745935 14:0.26896551 15:0.7479744 16:0.87745935 17:0.26896551 18:0.7479744 19:0.87745935 20:0.26896551 21:0.7479744 22:0.87745935 23:0.26896551 
1 0:0.7713654 1:0.14625368 2:0.29625294 3:0.68816334 4:0.19585049 5:0.28514203 6:0.42517003 7:0.34959137 8:0.12545127 9:0.74481279 10:0.39899305 11:0.28505749 12:0.74481279 13:0.39899305 14:0.28505749 15:0.74481279 16:0.39899305 17:0.28505749 18:0.74481279 19:0.39899305 20:0.28505749 21:0.74481279 22:0.39899305 23:0.28505749 
1 0:0.60387057 1:0.39815727 2:0.21779859 3:0.69475341 4:0.60418046 5:0.35324109 6:0.78999579 7:0.74623442 8:0.48736462 9:0.86025214 10:0.82305431 11:0.48773947 12:0.86025214 13:0.82305431 14:0.48773947 15:0.86025214 16:0.82305431 17:0.48773947 18:0.86025214 19:0.82305431 20:0.48773947 21:0.86025214 22:0.82305431 23:0.48773947 
1 0:0.4728156 1:0.41961834 2:0.13348946 3:0.62159961 4:0.6128484 5:0.28222871 6:0.79345143 7:0.70885473 8:0.48706377 9:0.82739365 10:0.78859115 11:0.42643678 12:0.82739365 13:0.78859115 14:0.42643678 15:0.82739365 16:0.78859115 17:0.42643678 18:0.82739365 19:0.78859115 20:0.42643678 21:0.82739365 22:0.78859115 23:0.42643678 
1 0:0.75135982 1:0.28772426 2:0.33879781 3:0.73956656 4:0.38189656 5:0.35906774 6:0.75486904 7:0.48359758 8:0.36522263 9:0.78866428 10:0.69083202 11:0.37701151 12:0.78866428 13:0.69083202 14:0.37701151 15:0.78866428 16:0.69083202 17:0.37701151 18:0.78866428 19:0.69083202 20:0.37701151 21:0.78866428 22:0.69083202 23:0.37701151 
1 0:0.53324956 1:0.34853646 2:0.1693989 3:0.58881319 4:0.56301481 5:0.25163874 6:0.53476459 7:0.79505849 8:0.20697954 9:0.70490313 10:0.86706376 11:0.19157088 12:0.70490313 13:0.86706376 14:0.19157088 15:0.70490313 16:0.86706376 17:0.19157088 18:0.70490313 19:0.86706376 20:0.19157088 21:0.70490313 22:0.86706376 23:0.19157088 
1 0:0.81160575 1:0.33827636 2:0.51249021 3:0.79453504 4:0.40578708 5:0.50218499 6:0.5549767 7:0.56700987 8:0.20397112 9:0.61692882 10:0.70265383 11:0.14789271 12:0.61692882 13:0.70265383 14:0.14789271 15:0.61692882 16:0.70265383 17:0.14789271 18:0.61692882 19:0.70265383 20:0.14789271 21:0.61692882 22:0.70265383 23:0.14789271 
1 0:0.70424688 1:0.71341747 2:0.33645588 3:0.84408587 4:0.79731828 5:0.63109976 6:0.88084418 7:0.834813 8:0.64019257 9:0.89806408 10:0.83689439 11:0.55977011 12:0.89806408 13:0.83689439 14:0.55977011 15:0.89806408 16:0.83689439 17:0.55977011 18:0.89806408 19:0.83689439 20:0.55977011 21:0.89806408 22:0.83689439 23:0.55977011 
1 0:0.83660001 1:0.53135169 2:0.53825134 3:0.91846251 4:0.65084291 5:0.77676618 6:0.86312217 7:0.79698366 8:0.59717208 9:0.85565186 10:0.82547325 11:0.48275861 12:0.85565186 13:0.82547325 14:0.48275861 15:0.85565186 16:0.82547325 17:0.48275861 18:0.85565186 19:0.82547325 20:0.48275861 21:0.85565186 22:0.82547325 23:0.48275861 
1 0:0.75344175 1:0.21956903 2:0.4223263 3:0.80079716 4:0.21410994 5:0.51857245 6:0.81907338 7:0.12235229 8:0.51143199 9:0.79934049 10:0.12991399 11:0.35517243 12:0.79934049 13:0.12991399 14:0.35517243 15:0.79934049 16:0.12991399 17:0.35517243 18:0.79934049 19:0.12991399 20:0.35517243 21:0.79934049 22:0.12991399 23:0.35517243 
1 0:0.53977239 1:0.42368463 2:0.16276346 3:0.60151172 4:0.43743989 5:0.25382376 6:0.69447231 7:0.38183385 8:0.36823106 9:0.84672695 10:0.32171351 11:0.47049809 12:0.84672695 13:0.32171351 14:0.47049809 15:0.84672695 16:0.32171351 17:0.47049809 18:0.84672695 19:0.32171351 20:0.47049809 21:0.84672695 22:0.32171351 23:0.47049809 
1 0:0.73785836 1:0.58416134 2:0.35792351 3:0.87102342 4:0.59030563 5:0.64785141 6:0.91198683 7:0.51438987 8:0.71058965 9:0.84505278 10:0.46188661 11:0.43678162 12:0.84505278 13:0.46188661 14:0.43678162 15:0.84505278 16:0.46188661 17:0.43678162 18:0.84505278 19:0.46188661 20:0.43678162 21:0.84505278 22:0.46188661 23:0.43678162 
1 0:0.42899868 1:0.70329797 2:0.10616706 3:0.62947416 4:0.65749401 5:0.29169703 6:0.75768352 7:0.79899549 8:0.45878461 9:0.86148638 10:0.78757209 11:0.44099617 12:0.86148638 13:0.78757209 14:0.44099617 15:0.86148638 16:0.78757209 17:0.44099617 18:0.86148638 19:0.78757209 20:0.44099617 21:0.86148638 22:0.78757209 23:0.44099617 
1 0:0.74897093 1:0.65451193 2:0.38056207 3:0.92423779 4:0.66116548 5:0.79206121 6:0.92819339 7:0.61681634 8:0.74939829 9:0.79213941 10:0.59236366 11:0.30689654 12:0.79213941 13:0.59236366 14:0.30689654 15:0.79213941 16:0.59236366 17:0.30689654 18:0.79213941 19:0.59236366 20:0.30689654 21:0.79213941 22:0.59236366 23:0.30689654 
1 0:0.80675566 1:0.7125963 2:0.47814208 3:0.92359048 4:0.71687198 5:0.79825199 6:0.94704336 7:0.68229169 8:0.79783392 9:0.87093276 10:0.63072568 11:0.49233717 12:0.87093276 13:0.63072568 14:0.49233717 15:0.87093276 16:0.63072568 17:0.49233717 18:0.87093276 19:0.63072568 20:0.49233717 21:0.87093276 22:0.63072568 23:0.49233717 
1 0:0.79424196 1:0.76167101 2:0.39344263 3:0.91481012 4:0.76405066 5:0.77567369 6:0.95882738 7:0.70985538 8:0.8495788 9:0.82622206 10:0.67186058 11:0.36551723 12:0.82622206 13:0.67186058 14:0.36551723 15:0.82622206 16:0.67186058 17:0.36551723 18:0.82622206 19:0.67186058 20:0.36551723 21:0.82622206 22:0.67186058 23:0.36551723 
1 0:0.74727362 1:0.68162388 2:0.37353629 3:0.91597164 4:0.68536329 5:0.7607429 6:0.94781554 7:0.64004755 8:0.80084234 9:0.82911801 10:0.60263878 11:0.39272031 12:0.82911801 13:0.60263878 14:0.39272031 15:0.82911801 16:0.60263878 17:0.39272031 18:0.82911801 19:0.60263878 20:0.39272031 21:0.82911801 22:0.60263878 23:0.39272031 
1 0:0.74853218 1:0.76512533 2:0.33021078 3:0.92714357 4:0.78499359 5:0.69774216 6:0.88508409 7:0.75673509 8:0.55114323 9:0.73902017 10:0.69981712 11:0.24559388 12:0.73902017 13:0.69981712 14:0.24559388 15:0.73902017 16:0.69981712 17:0.24559388 18:0.73902017 19:0.69981712 20:0.24559388 21:0.73902017 22:0.69981712 23:0.24559388 
1 0:0.56551135 1:0.42748618 2:0.1342701 3:0.67084271 4:0.46903268 5:0.23051712 6:0.56764632 7:0.69845426 8:0.19314079 9:0.65358245 10:0.77342069 11:0.18122606 12:0.65358245 13:0.77342069 14:0.18122606 15:0.65358245 16:0.77342069 17:0.18122606 18:0.65358245 19:0.77342069 20:0.18122606 21:0.65358245 22:0.77342069 23:0.18122606 
1 0:0.45384938 1:0.27908528 2:0.050351288 3:0.40270293 4:0.36053529 5:0.055717409 6:0.096740022 7:0.65705442 8:0.016847173 9:0.74325258 10:0.75789833 11:0.27777779 12:0.74325258 13:0.75789833 14:0.27777779 15:0.74325258 16:0.75789833 17:0.27777779 18:0.74325258 19:0.75789833 20:0.27777779 21:0.74325258 22:0.75789833 23:0.27777779 
1 0:0.83761913 1:0.42617223 2:0.55581576 3:0.76873839 4:0.56627381 5:0.47086671 6:0.7170859 7:0.74917829 8:0.37394705 9:0.81033063 10:0.78344423 11:0.37471265 12:0.81033063 13:0.78344423 14:0.37471265 15:0.81033063 16:0.78344423 17:0.37471265 18:0.81033063 19:0.78344423 20:0.37471265 21:0.81033063 22:0.78344423 23:0.37471265 
1 0:0.53928608 1:0.54014426 2:0.1108509 3:0.30189615 4:0.67719543 5:0.053896576 6:0.33224741 7:0.73139089 8:0.088748492 9:0.88714397 10:0.7319079 11:0.57356322 12:0.88714397 13:0.7319079 14:0.57356322 15:0.88714397 16:0.7319079 17:0.57356322 18:0.88714397 19:0.7319079 20:0.57356322 21:0.88714397 22:0.7319079 23:0.57356322 
1 0:0.3210828 1:0.55363065 2:0.043715846 3:0.40349978 4:0.63916856 5:0.077567369 6:0.4750593 7:0.71978009 8:0.14290012 9:0.88340992 10:0.70617306 11:0.55478925 12:0.88340992 13:0.70617306 14:0.55478925 15:0.88340992 16:0.70617306 17:0.55478925 18:0.88340992 19:0.70617306 20:0.55478925 21:0.88340992 22:0.70617306 23:0.55478925 
-1 0:0.50542319 1:0.43080059 2:0.14637002 3:0.52740669 4:0.52171189 5:0.19701384 6:0.2754117 7:0.92689627 8:0.067087844 9:0.54314893 10:1 11:0.068582378 12:0.54314893 13:1 14:0.068582378 15:0.54314893 16:1 17:0.068582378 18:0.54314893 19:1 20:0.068582378 21:0.54314893 22:1 23:0.068582378 
-1 0:0.77367634 1:0.34458327 2:0.36612022 3:0.7485007 4:0.50922394 5:0.3638019 6:0.62388343 7:0.75850797 8:0.26444045 9:0.71272552 10:0.89037925 11:0.23754789 12:0.71272552 13:0.89037925 14:0.23754789 15:0.71272552 16:0.89037925 17:0.23754789 18:0.71272552 19:0.89037925 20:0.23754789 21:0.71272552 22:0.89037925 23:0.23754789 
-1 0:0.34678552 1:0.24428414 2:0.046448089 3:0.17223373 4:0.49329713 5:0.045884922 6:0.25935692 7:0.57346803 8:0.066486165 9:0.7870661 10:0.84533721 11:0.31340995 12:0.7870661 13:0.84533721 14:0.31340995 15:0.7870661 16:0.84533721 17:0.31340995 18:0.7870661 19:0.84533721 20:0.31340995 21:0.7870661 22:0.84533721 23:0.31340995 
-1 0:0.61712074 1:0.31895846 2:0.2334114 3:0.61184067 4:0.46838859 5:0.26911873 6:0.65518653 7:0.66533983 8:0.29001203 9:0.79381734 10:0.74879956 11:0.34789273 12:0.79381734 13:0.74879956 14:0.34789273 15:0.79381734 16:0.74879956 17:0.34789273 18:0.79381734 19:0.74879956 20:0.34789273 21:0.79381734 22:0.74879956 23:0.34789273 
-1 0:0.68301988 1:0.31190208 2:0.29859486 3:0.74914002 4:0.5119099 5:0.4333576 6:0.73191959 7:0.74702728 8:0.38598076 9:0.86204153 10:0.75955862 11:0.49195403 12:0.86204153 13:0.75955862 14:0.49195403 15:0.86204153 16:0.75955862 17:0.49195403 18:0.86204153 19:0.75955862 20:0.49195403 21:0.86204153 22:0.75955862 23:0.49195403 
-1 0:0.59665513 1:0.25836864 2:0.21038251 3:0.57694656 4:0.33100581 5:0.23889293 6:0.46584874 7:0.49083078 8:0.15493381 9:0.75997698 10:0.67999041 11:0.26628351 12:0.75997698 13:0.67999041 14:0.26628351 15:0.75997698 16:0.67999041 17:0.26628351 18:0.75997698 19:0.67999041 20:0.26628351 21:0.75997698 22:0.67999041 23:0.26628351 
-1 0:0.72790241 1:0.20710917 2:0.27868852 3:0.4717916 4:0.45617232 5:0.16278222 6:0.57102442 7:0.67214614 8:0.21961492 9:0.76885182 10:0.79181504 11:0.30842912 12:0.76885182 13:0.79181504 14:0.30842912 15:0.76885182 16:0.79181504 17:0.30842912 18:0.76885182 19:0.79181504 20:0.30842912 21:0.76885182 22:0.79181504 23:0.30842912 
-1 0:0.9057321 1:0.31240827 2:0.70413738 3:0.81467175 4:0.48273918 5:0.51930082 6:0.65072066 7:0.64712 8:0.29602888 9:0.74376816 10:0.7288574 11:0.25019157 12:0.74376816 13:0.7288574 14:0.25019157 15:0.74376816 16:0.7288574 17:0.25019157 18:0.74376816 19:0.7288574 20:0.25019157 21:0.74376816 22:0.7288574 23:0.25019157 
-1 0:0.80260199 1:0.4652656 2:0.47267759 3:0.95124388 4:0.50105971 5:0.86525857 6:0.93142372 7:0.46619508 8:0.74277979 9:0.80956388 10:0.47002393 11:0.3329502 12:0.80956388 13:0.47002393 14:0.3329502 15:0.80956388 16:0.47002393 17:0.3329502 18:0.80956388 19:0.47002393 20:0.3329502 21:0.80956388 22:0.47002393 23:0.3329502 
-1 0:0.51662636 1:0.24034323 2:0.13114753 3:0.46358091 4:0.33127388 5:0.15622725 6:0.43174514 7:0.71496326 8:0.11642599 9:0.77386826 10:0.75729305 11:0.29463601 12:0.77386826 13:0.75729305 14:0.29463601 15:0.77386826 16:0.75729305 17:0.29463601 18:0.77386826 19:0.75729305 20:0.29463601 21:0.77386826 22:0.75729305 23:0.29463601 
-1 0:0.91262209 1:0.23897943 2:0.74863386 3:0.97006142 4:0.27403918 5:0.94683176 6:0.86891425 7:0.26507303 8:0.57701564 9:0.75206077 10:0.32714167 11:0.25325671 12:0.75206077 13:0.32714167 14:0.25325671 15:0.75206077 16:0.32714167 17:0.25325671 18:0.75206077 19:0.32714167 20:0.25325671 21:0.75206077 22:0.32714167 23:0.25325671 
-1 0:0.7040382 1:0.60621536 2:0.32006246 3:0.78789133 4:0.70236301 5:0.50473416 6:0.87533981 7:0.69816554 8:0.64801443 9:0.89206427 10:0.70241106 11:0.5743295 12:0.89206427 13:0.70241106 14:0.5743295 15:0.89206427 16:0.70241106 17:0.5743295 18:0.89206427 19:0.70241106 20:0.5743295 21:0.89206427 22:0.70241106 23:0.5743295 
-1 0:0.88128626 1:0.2730765 2:0.66900861 3:0.9314062 4:0.30606166 5:0.78841954 6:0.5076493 7:0.50198835 8:0.17148015 9:0.52095556 10:0.64215267 11:0.083524905 12:0.52095556 13:0.64215267 14:0.083524905 15:0.52095556 16:0.64215267 17:0.083524905 18:0.52095556 19:0.64215267 20:0.083524905 21:0.52095556 22:0.64215267 23:0.083524905 
-1 0:0.64501727 1:0.32730907 2:0.24004684 3:0.58570331 4:0.44969773 5:0.23525128 6:0.48381597 7:0.78361166 8:0.13628159 9:0.69895744 10:0.82355797 11:0.19961686 12:0.69895744 13:0.82355797 14:0.19961686 15:0.69895744 16:0.82355797 17:0.19961686 18:0.69895744 19:0.82355797 20:0.19961686 21:0.69895744 22:0.82355797 23:0.19961686 
-0.7469663801110992 0:0.81902587 1:0.30094513 2:0.50507414 3:0.80731851 4:0.42956695 5:0.52403498 6:0.62001652 7:0.62440395 8:0.26534295 9:0.75369406 10:0.6787433 11:0.25134099 12:0.75369406 13:0.6787433 14:0.25134099 15:0.75369406 16:0.6787433 17:0.25134099 18:0.75369406 19:0.6787433 20:0.25134099 21:0.75369406 22:0.6787433 23:0.25134099 
-0.3237389455732743 0:0.86679405 1:0.027993115 2:0.64402813 3:0.75911933 4:0.0315363 5:0.41296431 6:0.13567646 7:0.12369868 8:0.02797834 9:0.43865749 10:0.27467418 11:0.036398467 12:0.43865749 13:0.27467418 14:0.036398467 15:0.43865749 16:0.27467418 17:0.036398467 18:0.43865749 19:0.27467418 20:0.036398467 21:0.43865749 22:0.27467418 23:0.036398467 
-0.6462979476661017 0:0.74271518 1:0.56037199 2:0.38368464 3:0.84902442 4:0.64630109 5:0.62199563 6:0.880925 7:0.66531974 8:0.64801443 9:0.87266558 10:0.67362809 11:0.50344825 12:0.87266558 13:0.67362809 14:0.50344825 15:0.87266558 16:0.67362809 17:0.50344825 18:0.87266558 19:0.67362809 20:0.50344825 21:0.87266558 22:0.67362809 23:0.50344825 
-1 0:0.70742226 1:0.33702776 2:0.32240438 3:0.87328774 4:0.32627425 5:0.65914059 6:0.49078569 7:0.69128299 8:0.14891697 9:0.70743024 10:0.74987495 11:0.17049809 12:0.70743024 13:0.74987495 14:0.17049809 15:0.70743024 16:0.74987495 17:0.17049809 18:0.70743024 19:0.74987495 20:0.17049809 21:0.70743024 22:0.74987495 23:0.17049809 
-1 0:0.77296788 1:0.42365849 2:0.43364558 3:0.78415948 4:0.52557939 5:0.46649674 6:0.62946701 7:0.7519778 8:0.23977137 9:0.87424016 10:0.75219202 11:0.41570881 12:0.87424016 13:0.75219202 14:0.41570881 15:0.87424016 16:0.75219202 17:0.41570881 18:0.87424016 19:0.75219202 20:0.41570881 21:0.87424016 22:0.75219202 23:0.41570881 
-1 0:0.87188083 1:0.28115225 2:0.6131928 3:0.7816264 4:0.42818713 5:0.45666423 6:0.58249778 7:0.63134915 8:0.23164861 9:0.69210768 10:0.7341134 11:0.18582375 12:0.69210768 13:0.7341134 14:0.18582375 15:0.69210768 16:0.7341134 17:0.18582375 18:0.69210768 19:0.7341134 20:0.18582375 21:0.69210768 22:0.7341134 23:0.18582375 
-0.1456203749114653 0:0.46265513 1:0.059618469 2:0.080015615 3:0.21907127 4:0.17645751 5:0.034231611 6:0.24236971 7:0.18706094 8:0.061371841 9:0.83647877 10:0.24626137 11:0.46590039 12:0.83647877 13:0.24626137 14:0.46590039 15:0.83647877 16:0.24626137 17:0.46590039 18:0.83647877 19:0.24626137 20:0.46590039 21:0.83647877 22:0.24626137 23:0.46590039 
-1 0:0.78000271 1:0.72479612 2:0.41842312 3:0.9433921 4:0.72078347 5:0.86052442 6:0.88592678 7:0.68228346 8:0.6597473 9:0.80834764 10:0.62346947 11:0.35287356 12:0.80834764 13:0.62346947 14:0.35287356 15:0.80834764 16:0.62346947 17:0.35287356 18:0.80834764 19:0.62346947 20:0.35287356 21:0.80834764 22:0.62346947 23:0.35287356 
-1 0:0.81691653 1:0.5514096 2:0.52146763 3:0.89943594 4:0.61906976 5:0.7381646 6:0.82417065 7:0.75281835 8:0.52617329 9:0.91230357 10:0.72181815 11:0.64176244 12:0.91230357 13:0.72181815 14:0.64176244 15:0.91230357 16:0.72181815 17:0.64176244 18:0.91230357 19:0.72181815 20:0.64176244 21:0.91230357 22:0.72181815 23:0.64176244 
-0.2420361703218358 0:0.76135635 1:0.38800955 2:0.38992974 3:0.73067796 4:0.48954546 5:0.40713766 6:0.60805035 7:0.73618364 8:0.25421178 9:0.69819522 10:0.88553023 11:0.20574713 12:0.69819522 13:0.88553023 14:0.20574713 15:0.69819522 16:0.88553023 17:0.20574713 18:0.69819522 19:0.88553023 20:0.20574713 21:0.69819522 22:0.88553023 23:0.20574713 
-1 0:0.74264455 1:0.43892866 2:0.32552692 3:0.8137787 4:0.58395237 5:0.44792426 6:0.59235901 7:0.75807267 8:0.22623345 9:0.67920417 10:0.8871457 11:0.19808429 12:0.67920417 13:0.8871457 14:0.19808429 15:0.67920417 16:0.8871457 17:0.19808429 18:0.67920417 19:0.8871457 20:0.19808429 21:0.67920417 22:0.8871457 23:0.19808429 
-0.4793079069529266 0:0.64351958 1:0.13748364 2:0.17759563 3:0.49009126 4:0.19126469 5:0.15222141 6:0.35183704 7:0.41876259 8:0.10740072 9:0.87931484 10:0.40998563 11:0.56551725 12:0.87931484 13:0.40998563 14:0.56551725 15:0.87931484 16:0.40998563 17:0.56551725 18:0.87931484 19:0.40998563 20:0.56551725 21:0.87931484 22:0.40998563 23:0.56551725 
-1 0:0.83380616 1:0.66840911 2:0.52654177 3:0.92560512 4:0.75275058 5:0.79497451 6:0.86838073 7:0.81793296 8:0.61793023 9:0.86949331 10:0.81726795 11:0.45402297 12:0.86949331 13:0.81726795 14:0.45402297 15:0.86949331 16:0.81726795 17:0.45402297 18:0.86949331 19:0.81726795 20:0.45402297 21:0.86949331 22:0.81726795 23:0.45402297 
-0.7091872010741084 0:0.055265889 1:0.29609305 2:0.0078064012 3:0.12396767 4:0.41374967 5:0.027676621 6:0.63318568 7:0.45564538 8:0.27647412 9:0.93534529 10:0.41925266 11:0.70689654 12:0.93534529 13:0.41925266 14:0.70689654 15:0.93534529 16:0.41925266 17:0.70689654 18:0.93534529 19:0.41925266 20:0.70689654 21:0.93534529 22:0.41925266 23:0.70689654 
-1 0:0.60771722 1:0.39632627 2:0.21662763 3:0.5614174 4:0.55213678 5:0.21267298 6:0.59020823 7:0.5603283 8:0.2379663 9:0.70654202 10:0.72478014 11:0.22605364 12:0.70654202 13:0.72478014 14:0.22605364 15:0.70654202 16:0.72478014 17:0.22605364 18:0.70654202 19:0.72478014 20:0.22605364 21:0.70654202 22:0.72478014 23:0.22605364 
-1 0:0.47047684 1:0.3921771 2:0.13075723 3:0.63954604 4:0.49815613 5:0.30335033 6:0.72124559 7:0.70444274 8:0.37394705 9:0.79705417 10:0.70484293 11:0.35555556 12:0.79705417 13:0.70484293 14:0.35555556 15:0.79705417 16:0.70484293 17:0.35555556 18:0.79705417 19:0.70484293 20:0.35555556 21:0.79705417 22:0.70484293 23:0.35555556 
-0.8483577733035549 0:0.83372766 1:0.63052559 2:0.53629977 3:0.904926 4:0.693151 5:0.74726874 6:0.9219324 7:0.75655228 8:0.73676294 9:0.84370393 10:0.82408375 11:0.38965517 12:0.84370393 13:0.82408375 14:0.38965517 15:0.84370393 16:0.82408375 17:0.38965517 18:0.84370393 19:0.82408375 20:0.38965517 21:0.84370393 22:0.82408375 23:0.38965517 
-1 0:0.73872334 1:0.66063523 2:0.3793911 3:0.8969838 4:0.77811599 5:0.70975965 6:0.94298863 7:0.77074599 8:0.79332131 9:0.88261807 10:0.78041613 11:0.51379311 12:0.88261807 13:0.78041613 14:0.51379311 15:0.88261807 16:0.78041613 17:0.51379311 18:0.88261807 19:0.78041613 20:0.51379311 21:0.88261807 22:0.78041613 23:0.51379311 
-1 0:0.51490521 1:0.29648569 2:0.14910227 3:0.51366717 4:0.41759101 5:0.19045885 6:0.55711049 7:0.51322836 8:0.17569193 9:0.76377559 10:0.66125345 11:0.15900382 12:0.76377559 13:0.66125345 14:0.15900382 15:0.76377559 16:0.66125345 17:0.15900382 18:0.76377559 19:0.66125345 20:0.15900382 21:0.76377559 22:0.66125345 23:0.15900382 
-0.8219057762332775 0:0.68729246 1:0.27081171 2:0.21701795 3:0.73893136 4:0.28276679 5:0.29351786 6:0.44721013 7:0.40475452 8:0.12755716 9:0.75395578 10:0.45427161 11:0.29808429 12:0.75395578 13:0.45427161 14:0.29808429 15:0.75395578 16:0.45427161 17:0.29808429 18:0.75395578 19:0.45427161 20:0.29808429 21:0.75395578 22:0.45427161 23:0.29808429 
-1 0:0.70925295 1:0.16601898 2:0.22443403 3:0.57480633 4:0.2254187 5:0.16533139 6:0.14785373 7:0.49459457 8:0.036101084 9:0.83278322 10:0.51738125 11:0.4275862 12:0.83278322 13:0.51738125 14:0.4275862 15:0.83278322 16:0.51738125 17:0.4275862 18:0.83278322 19:0.51738125 20:0.4275862 21:0.83278322 22:0.51738125 23:0.4275862 
-1 0:0.51765758 1:0.69914305 2:0.16003123 3:0.75195789 4:0.68856418 5:0.44355425 6:0.98888659 7:0.60371065 8:0.96600479 9:0.93941319 10:0.51178163 11:0.66130269 12:0.93941319 13:0.51178163 14:0.66130269 15:0.93941319 16:0.51178163 17:0.66130269 18:0.93941319 19:0.51178163 20:0.66130269 21:0.93941319 22:0.51178163 23:0.66130269 
-0.9001185991765355 0:0.74220932 1:0.66200632 2:0.38641685 3:0.81836694 4:0.73674375 5:0.54843408 6:0.6783371 7:0.90516835 8:0.31347772 9:0.75021774 10:0.92985874 11:0.27586207 12:0.75021774 13:0.92985874 14:0.27586207 15:0.75021774 16:0.92985874 17:0.27586207 18:0.75021774 19:0.92985874 20:0.27586207 21:0.75021774 22:0.92985874 23:0.27586207 
-1 0:0.54045177 1:0.40681726 2:0.14637002 3:0.64369702 4:0.5358572 5:0.28040788 6:0.72294331 7:0.66392589 8:0.37515041 9:0.7318781 10:0.81091744 11:0.26436782 12:0.7318781 13:0.81091744 14:0.26436782 15:0.7318781 16:0.81091744 17:0.26436782 18:0.7318781 19:0.81091744 20:0.26436782 21:0.7318781 22:0.81091744 23:0.26436782 
-1 0:0.65363151 1:0.37471887 2:0.22950819 3:0.68169379 4:0.53852409 5:0.35324109 6:0.78234512 7:0.6806621 8:0.45998797 9:0.82187307 10:0.81590408 11:0.41762453 12:0.82187307 13:0.81590408 14:0.41762453 15:0.82187307 16:0.81590408 17:0.41762453 18:0.82187307 19:0.81590408 20:0.41762453 21:0.82187307 22:0.81590408 23:0.41762453 
-1 0:0.94180399 1:0.33653891 2:0.70725995 3:0.92484671 4:0.38866693 5:0.67880553 6:0.78874969 7:0.42882735 8:0.45427197 9:0.7771346 10:0.51889443 11:0.32452106 12:0.7771346 13:0.51889443 14:0.32452106 15:0.7771346 16:0.51889443 17:0.32452106 18:0.7771346 19:0.51889443 20:0.32452106 21:0.7771346 22:0.51889443 23:0.32452106 
-1 0:0.082087167 1:0.36339223 2:0.019516002 3:0.22462726 4:0.52263218 5:0.063729063 6:0.70136863 7:0.61821622 8:0.35529482 9:0.77471107 10:0.73902947 11:0.32567051 12:0.77471107 13:0.73902947 14:0.32567051 15:0.77471107 16:0.73902947 17:0.32567051 18:0.77471107 19:0.73902947 20:0.32567051 21:0.77471107 22:0.73902947 23:0.32567051 
-1 0:0.57938439 1:0.7597903 2:0.20374708 3:0.73270267 4:0.85190362 5:0.40021849 6:0.75020641 7:0.88336253 8:0.39560771 9:0.86796898 10:0.85325086 11:0.49540231 12:0.86796898 13:0.85325086 14:0.49540231 15:0.86796898 16:0.85325086 17:0.49540231 18:0.86796898 19:0.85325086 20:0.49540231 21:0.86796898 22:0.85325086 23:0.49540231 
-0.9563481932320216 0:0.57119757 1:0.68584263 2:0.19476971 3:0.67458051 4:0.74584323 5:0.32556444 6:0.74802804 7:0.78910571 8:0.38989168 9:0.92056781 10:0.70897281 11:0.66475093 12:0.92056781 13:0.70897281 14:0.66475093 15:0.92056781 16:0.70897281 17:0.66475093 18:0.92056781 19:0.70897281 20:0.66475093 21:0.92056781 22:0.70897281 23:0.66475093 
-1 0:0.49614248 1:0.67431945 2:0.14832163 3:0.65429801 4:0.79840678 5:0.30735615 6:0.71857607 7:0.87328947 8:0.36010832 9:0.86815935 10:0.86036938 11:0.51187742 12:0.86815935 13:0.86036938 14:0.51187742 15:0.86815935 16:0.86036938 17:0.51187742 18:0.86815935 19:0.86036938 20:0.51187742 21:0.86815935 22:0.86036938 23:0.51187742 
-0.658953638566287 0:0.83996934 1:0.6069504 2:0.53942233 3:0.93162626 4:0.6202426 5:0.82301527 6:0.41349778 7:0.6430757 8:0.12695548 9:0.59967691 10:0.64948237 11:0.093869731 12:0.59967691 13:0.64948237 14:0.093869731 15:0.59967691 16:0.64948237 17:0.093869731 18:0.59967691 19:0.64948237 20:0.093869731 21:0.59967691 22:0.64948237 23:0.093869731 
-1 0:0.66136205 1:0.41350067 2:0.28181109 3:0.57261455 4:0.47885454 5:0.22869629 6:0.49715149 7:0.53497267 8:0.18020457 9:0.89987767 10:0.48013553 11:0.6394636 12:0.89987767 13:0.48013553 14:0.6394636 15:0.89987767 16:0.48013553 17:0.6394636 18:0.89987767 19:0.48013553 20:0.6394636 21:0.89987767 22:0.48013553 23:0.6394636 
-1 0:0.77523726 1:0.34180278 2:0.40554255 3:0.75474072 4:0.41164884 5:0.41223598 6:0.62245083 7:0.54255086 8:0.15523465 9:0.79514509 10:0.47446197 11:0.21877395 12:0.79514509 13:0.47446197 14:0.21877395 15:0.79514509 16:0.47446197 17:0.21877395 18:0.79514509 19:0.47446197 20:0.21877395 21:0.79514509 22:0.47446197 23:0.21877395 
-1 0:0.84725517 1:0.48090634 2:0.57962531 3:0.91948509 4:0.51685977 5:0.78550619 6:0.84053361 7:0.54559231 8:0.52707583 9:0.77599925 10:0.57292509 11:0.29501915 12:0.77599925 13:0.57292509 14:0.29501915 15:0.77599925 16:0.57292509 17:0.29501915 18:0.77599925 19:0.57292509 20:0.29501915 21:0.77599925 22:0.57292509 23:0.29501915 
-1 0:0.52493048 1:0.57730699 2:0.14754099 3:0.67648613 4:0.5836904 5:0.33248362 6:0.93479943 7:0.49030441 8:0.78008425 9:0.87514514 10:0.39420134 11:0.48812261 12:0.87514514 13:0.39420134 14:0.48812261 15:0.87514514 16:0.39420134 17:0.48812261 18:0.87514514 19:0.39420134 20:0.48812261 21:0.87514514 22:0.39420134 23:0.48812261 
-1 0:0.53510153 1:0.414042 2:0.16666667 3:0.62603152 4:0.42425373 5:0.2906045 6:0.5743897 7:0.41020054 8:0.21690734 9:0.864739 10:0.35412228 11:0.50689656 12:0.864739 13:0.35412228 14:0.50689656 15:0.864739 16:0.35412228 17:0.50689656 18:0.864739 19:0.35412228 20:0.50689656 21:0.864739 22:0.35412228 23:0.50689656 
-1 0:0.75039548 1:0.48297024 2:0.33411399 3:0.66401547 4:0.5064891 5:0.32083029 6:0.47300932 7:0.62965274 8:0.15643802 9:0.75350583 10:0.66858023 11:0.27931035 12:0.75350583 13:0.66858023 14:0.27931035 15:0.75350583 16:0.66858023 17:0.27931035 18:0.75350583 19:0.66858023 20:0.27931035 21:0.75350583 22:0.66858023 23:0.27931035 
-0.2600555168640194 0:0.40757456 1:0.41553077 2:0.070647933 3:0.54923093 4:0.45656496 5:0.15586308 6:0.56891644 7:0.5702157 8:0.2286402 9:0.77649754 10:0.55525911 11:0.33141762 12:0.77649754 13:0.55525911 14:0.33141762 15:0.77649754 16:0.55525911 17:0.33141762 18:0.77649754 19:0.55525911 20:0.33141762 21:0.77649754 22:0.55525911 23:0.33141762 
-1 0:0.85148716 1:0.58990121 2:0.61241215 3:0.76225477 4:0.62917131 5:0.43554261 6:0.62504297 7:0.71565783 8:0.22984356 9:0.82799399 10:0.74833488 11:0.30804598 12:0.82799399 13:0.74833488 14:0.30804598 15:0.82799399 16:0.74833488 17:0.30804598 18:0.82799399 19:0.74833488 20:0.30804598 21:0.82799399 22:0.74833488 23:0.30804598 
-1 0:0.78363734 1:0.5876984 2:0.44613582 3:0.92927802 4:0.58506167 5:0.81136197 6:0.89267254 7:0.56690037 8:0.68411553 9:0.82142824 10:0.52032679 11:0.3632184 12:0.82142824 13:0.52032679 14:0.3632184 15:0.82142824 16:0.52032679 17:0.3632184 18:0.82142824 19:0.52032679 20:0.3632184 21:0.82142824 22:0.52032679 23:0.3632184 
-0.02920788028048121 0:0.35634902 1:0.80203438 2:0.074160814 3:0.79385787 4:0.82080144 5:0.51747996 6:0.9462893 7:0.76990497 8:0.80354995 9:0.86095357 10:0.69191259 11:0.451341 12:0.86095357 13:0.69191259 14:0.451341 15:0.86095357 16:0.69191259 17:0.451341 18:0.86095357 19:0.69191259 20:0.451341 21:0.86095357 22:0.69191259 23:0.451341 
-0.2318976957329995 0:0.86767304 1:0.74731696 2:0.61904764 3:0.80838436 4:0.80729574 5:0.51456666 6:0.47195795 7:0.93523514 8:0.15132371 9:0.67531615 10:0.96731687 11:0.20268199 12:0.67531615 13:0.96731687 14:0.20268199 15:0.67531615 16:0.96731687 17:0.20268199 18:0.67531615 19:0.96731687 20:0.20268199 21:0.67531615 22:0.96731687 23:0.20268199 
